digraph Tree {
node [shape=box, fontname="helvetica"] ;
edge [fontname="helvetica"] ;
0 [label="X[9] <= 43.681\ngini = 0.281\nsamples = 1483\nvalue = [1232, 251]"] ;
1 [label="X[5] <= 1.5\ngini = 0.227\nsamples = 1409\nvalue = [1225, 184]"] ;
0 -> 1 [labeldistance=2.5, labelangle=45, headlabel="True"] ;
2 [label="X[4] <= 1.5\ngini = 0.189\nsamples = 1313\nvalue = [1174, 139]"] ;
1 -> 2 ;
3 [label="X[6] <= 173.132\ngini = 0.169\nsamples = 1274\nvalue = [1155, 119]"] ;
2 -> 3 ;
4 [label="X[2] <= 84241.5\ngini = 0.249\nsamples = 612\nvalue = [523, 89]"] ;
3 -> 4 ;
5 [label="X[0] <= 16850.0\ngini = 0.345\nsamples = 257\nvalue = [200, 57]"] ;
4 -> 5 ;
6 [label="X[2] <= 50823.0\ngini = 0.413\nsamples = 168\nvalue = [119, 49]"] ;
5 -> 6 ;
7 [label="X[6] <= 69.725\ngini = 0.499\nsamples = 40\nvalue = [21, 19]"] ;
6 -> 7 ;
8 [label="gini = 0.0\nsamples = 10\nvalue = [10, 0]"] ;
7 -> 8 ;
9 [label="X[0] <= 9700.0\ngini = 0.464\nsamples = 30\nvalue = [11, 19]"] ;
7 -> 9 ;
10 [label="gini = 0.0\nsamples = 13\nvalue = [0, 13]"] ;
9 -> 10 ;
11 [label="X[6] <= 123.703\ngini = 0.457\nsamples = 17\nvalue = [11, 6]"] ;
9 -> 11 ;
12 [label="gini = 0.0\nsamples = 10\nvalue = [10, 0]"] ;
11 -> 12 ;
13 [label="X[9] <= 23.785\ngini = 0.245\nsamples = 7\nvalue = [1, 6]"] ;
11 -> 13 ;
14 [label="gini = 0.0\nsamples = 1\nvalue = [1, 0]"] ;
13 -> 14 ;
15 [label="gini = 0.0\nsamples = 6\nvalue = [0, 6]"] ;
13 -> 15 ;
16 [label="X[7] <= 4.0\ngini = 0.359\nsamples = 128\nvalue = [98, 30]"] ;
6 -> 16 ;
17 [label="X[2] <= 82193.0\ngini = 0.32\nsamples = 120\nvalue = [96, 24]"] ;
16 -> 17 ;
18 [label="X[3] <= 11.5\ngini = 0.287\nsamples = 115\nvalue = [95, 20]"] ;
17 -> 18 ;
19 [label="X[6] <= 82.263\ngini = 0.225\nsamples = 93\nvalue = [81, 12]"] ;
18 -> 19 ;
20 [label="X[0] <= 11050.0\ngini = 0.48\nsamples = 15\nvalue = [9, 6]"] ;
19 -> 20 ;
21 [label="X[2] <= 77108.0\ngini = 0.298\nsamples = 11\nvalue = [9, 2]"] ;
20 -> 21 ;
22 [label="X[2] <= 58440.0\ngini = 0.18\nsamples = 10\nvalue = [9, 1]"] ;
21 -> 22 ;
23 [label="X[2] <= 57891.0\ngini = 0.5\nsamples = 2\nvalue = [1, 1]"] ;
22 -> 23 ;
24 [label="gini = 0.0\nsamples = 1\nvalue = [1, 0]"] ;
23 -> 24 ;
25 [label="gini = 0.0\nsamples = 1\nvalue = [0, 1]"] ;
23 -> 25 ;
26 [label="gini = 0.0\nsamples = 8\nvalue = [8, 0]"] ;
22 -> 26 ;
27 [label="gini = 0.0\nsamples = 1\nvalue = [0, 1]"] ;
21 -> 27 ;
28 [label="gini = 0.0\nsamples = 4\nvalue = [0, 4]"] ;
20 -> 28 ;
29 [label="X[0] <= 10050.0\ngini = 0.142\nsamples = 78\nvalue = [72, 6]"] ;
19 -> 29 ;
30 [label="X[2] <= 55316.0\ngini = 0.266\nsamples = 38\nvalue = [32, 6]"] ;
29 -> 30 ;
31 [label="gini = 0.0\nsamples = 1\nvalue = [0, 1]"] ;
30 -> 31 ;
32 [label="X[8] <= 18.5\ngini = 0.234\nsamples = 37\nvalue = [32, 5]"] ;
30 -> 32 ;
33 [label="gini = 0.0\nsamples = 15\nvalue = [15, 0]"] ;
32 -> 33 ;
34 [label="X[8] <= 21.5\ngini = 0.351\nsamples = 22\nvalue = [17, 5]"] ;
32 -> 34 ;
35 [label="X[9] <= 37.903\ngini = 0.494\nsamples = 9\nvalue = [5, 4]"] ;
34 -> 35 ;
36 [label="gini = 0.0\nsamples = 4\nvalue = [0, 4]"] ;
35 -> 36 ;
37 [label="gini = 0.0\nsamples = 5\nvalue = [5, 0]"] ;
35 -> 37 ;
38 [label="X[6] <= 98.975\ngini = 0.142\nsamples = 13\nvalue = [12, 1]"] ;
34 -> 38 ;
39 [label="X[0] <= 6750.0\ngini = 0.5\nsamples = 2\nvalue = [1, 1]"] ;
38 -> 39 ;
40 [label="gini = 0.0\nsamples = 1\nvalue = [1, 0]"] ;
39 -> 40 ;
41 [label="gini = 0.0\nsamples = 1\nvalue = [0, 1]"] ;
39 -> 41 ;
42 [label="gini = 0.0\nsamples = 11\nvalue = [11, 0]"] ;
38 -> 42 ;
43 [label="gini = 0.0\nsamples = 40\nvalue = [40, 0]"] ;
29 -> 43 ;
44 [label="X[0] <= 12100.0\ngini = 0.463\nsamples = 22\nvalue = [14, 8]"] ;
18 -> 44 ;
45 [label="X[1] <= 66278.0\ngini = 0.219\nsamples = 16\nvalue = [14, 2]"] ;
44 -> 45 ;
46 [label="X[9] <= 30.076\ngini = 0.124\nsamples = 15\nvalue = [14, 1]"] ;
45 -> 46 ;
47 [label="gini = 0.0\nsamples = 1\nvalue = [0, 1]"] ;
46 -> 47 ;
48 [label="gini = 0.0\nsamples = 14\nvalue = [14, 0]"] ;
46 -> 48 ;
49 [label="gini = 0.0\nsamples = 1\nvalue = [0, 1]"] ;
45 -> 49 ;
50 [label="gini = 0.0\nsamples = 6\nvalue = [0, 6]"] ;
44 -> 50 ;
51 [label="X[8] <= 17.5\ngini = 0.32\nsamples = 5\nvalue = [1, 4]"] ;
17 -> 51 ;
52 [label="gini = 0.0\nsamples = 4\nvalue = [0, 4]"] ;
51 -> 52 ;
53 [label="gini = 0.0\nsamples = 1\nvalue = [1, 0]"] ;
51 -> 53 ;
54 [label="X[9] <= 32.558\ngini = 0.375\nsamples = 8\nvalue = [2, 6]"] ;
16 -> 54 ;
55 [label="gini = 0.0\nsamples = 2\nvalue = [2, 0]"] ;
54 -> 55 ;
56 [label="gini = 0.0\nsamples = 6\nvalue = [0, 6]"] ;
54 -> 56 ;
57 [label="X[6] <= 64.167\ngini = 0.164\nsamples = 89\nvalue = [81, 8]"] ;
5 -> 57 ;
58 [label="X[2] <= 55356.5\ngini = 0.444\nsamples = 15\nvalue = [10, 5]"] ;
57 -> 58 ;
59 [label="gini = 0.0\nsamples = 8\nvalue = [8, 0]"] ;
58 -> 59 ;
60 [label="X[8] <= 14.0\ngini = 0.408\nsamples = 7\nvalue = [2, 5]"] ;
58 -> 60 ;
61 [label="gini = 0.0\nsamples = 4\nvalue = [0, 4]"] ;
60 -> 61 ;
62 [label="X[1] <= 44852.5\ngini = 0.444\nsamples = 3\nvalue = [2, 1]"] ;
60 -> 62 ;
63 [label="gini = 0.0\nsamples = 1\nvalue = [0, 1]"] ;
62 -> 63 ;
64 [label="gini = 0.0\nsamples = 2\nvalue = [2, 0]"] ;
62 -> 64 ;
65 [label="X[0] <= 25800.0\ngini = 0.078\nsamples = 74\nvalue = [71, 3]"] ;
57 -> 65 ;
66 [label="gini = 0.0\nsamples = 47\nvalue = [47, 0]"] ;
65 -> 66 ;
67 [label="X[0] <= 26500.0\ngini = 0.198\nsamples = 27\nvalue = [24, 3]"] ;
65 -> 67 ;
68 [label="gini = 0.0\nsamples = 2\nvalue = [0, 2]"] ;
67 -> 68 ;
69 [label="X[2] <= 80511.5\ngini = 0.077\nsamples = 25\nvalue = [24, 1]"] ;
67 -> 69 ;
70 [label="gini = 0.0\nsamples = 23\nvalue = [23, 0]"] ;
69 -> 70 ;
71 [label="X[6] <= 142.026\ngini = 0.5\nsamples = 2\nvalue = [1, 1]"] ;
69 -> 71 ;
72 [label="gini = 0.0\nsamples = 1\nvalue = [0, 1]"] ;
71 -> 72 ;
73 [label="gini = 0.0\nsamples = 1\nvalue = [1, 0]"] ;
71 -> 73 ;
74 [label="X[6] <= 62.536\ngini = 0.164\nsamples = 355\nvalue = [323, 32]"] ;
4 -> 74 ;
75 [label="X[3] <= 9.5\ngini = 0.278\nsamples = 6\nvalue = [1, 5]"] ;
74 -> 75 ;
76 [label="gini = 0.0\nsamples = 5\nvalue = [0, 5]"] ;
75 -> 76 ;
77 [label="gini = 0.0\nsamples = 1\nvalue = [1, 0]"] ;
75 -> 77 ;
78 [label="X[1] <= 197091.0\ngini = 0.143\nsamples = 349\nvalue = [322, 27]"] ;
74 -> 78 ;
79 [label="X[8] <= 36.5\ngini = 0.129\nsamples = 345\nvalue = [321, 24]"] ;
78 -> 79 ;
80 [label="X[0] <= 7650.0\ngini = 0.12\nsamples = 343\nvalue = [321, 22]"] ;
79 -> 80 ;
81 [label="X[9] <= 40.264\ngini = 0.426\nsamples = 13\nvalue = [9, 4]"] ;
80 -> 81 ;
82 [label="X[6] <= 172.026\ngini = 0.298\nsamples = 11\nvalue = [9, 2]"] ;
81 -> 82 ;
83 [label="X[1] <= 64312.0\ngini = 0.18\nsamples = 10\nvalue = [9, 1]"] ;
82 -> 83 ;
84 [label="gini = 0.0\nsamples = 1\nvalue = [0, 1]"] ;
83 -> 84 ;
85 [label="gini = 0.0\nsamples = 9\nvalue = [9, 0]"] ;
83 -> 85 ;
86 [label="gini = 0.0\nsamples = 1\nvalue = [0, 1]"] ;
82 -> 86 ;
87 [label="gini = 0.0\nsamples = 2\nvalue = [0, 2]"] ;
81 -> 87 ;
88 [label="X[1] <= 116215.0\ngini = 0.103\nsamples = 330\nvalue = [312, 18]"] ;
80 -> 88 ;
89 [label="X[9] <= 42.24\ngini = 0.073\nsamples = 291\nvalue = [280, 11]"] ;
88 -> 89 ;
90 [label="X[4] <= 0.5\ngini = 0.061\nsamples = 286\nvalue = [277, 9]"] ;
89 -> 90 ;
91 [label="X[9] <= 19.78\ngini = 0.043\nsamples = 272\nvalue = [266, 6]"] ;
90 -> 91 ;
92 [label="X[9] <= 11.072\ngini = 0.5\nsamples = 2\nvalue = [1, 1]"] ;
91 -> 92 ;
93 [label="gini = 0.0\nsamples = 1\nvalue = [1, 0]"] ;
92 -> 93 ;
94 [label="gini = 0.0\nsamples = 1\nvalue = [0, 1]"] ;
92 -> 94 ;
95 [label="X[8] <= 35.5\ngini = 0.036\nsamples = 270\nvalue = [265, 5]"] ;
91 -> 95 ;
96 [label="X[9] <= 36.037\ngini = 0.03\nsamples = 267\nvalue = [263, 4]"] ;
95 -> 96 ;
97 [label="gini = 0.0\nsamples = 167\nvalue = [167, 0]"] ;
96 -> 97 ;
98 [label="X[9] <= 36.054\ngini = 0.077\nsamples = 100\nvalue = [96, 4]"] ;
96 -> 98 ;
99 [label="gini = 0.0\nsamples = 1\nvalue = [0, 1]"] ;
98 -> 99 ;
100 [label="X[3] <= 17.5\ngini = 0.059\nsamples = 99\nvalue = [96, 3]"] ;
98 -> 100 ;
101 [label="X[3] <= 3.5\ngini = 0.042\nsamples = 94\nvalue = [92, 2]"] ;
100 -> 101 ;
102 [label="X[3] <= 2.5\ngini = 0.124\nsamples = 30\nvalue = [28, 2]"] ;
101 -> 102 ;
103 [label="gini = 0.0\nsamples = 19\nvalue = [19, 0]"] ;
102 -> 103 ;
104 [label="X[1] <= 92975.5\ngini = 0.298\nsamples = 11\nvalue = [9, 2]"] ;
102 -> 104 ;
105 [label="X[6] <= 88.205\ngini = 0.18\nsamples = 10\nvalue = [9, 1]"] ;
104 -> 105 ;
106 [label="X[7] <= 1.0\ngini = 0.444\nsamples = 3\nvalue = [2, 1]"] ;
105 -> 106 ;
107 [label="gini = 0.0\nsamples = 1\nvalue = [0, 1]"] ;
106 -> 107 ;
108 [label="gini = 0.0\nsamples = 2\nvalue = [2, 0]"] ;
106 -> 108 ;
109 [label="gini = 0.0\nsamples = 7\nvalue = [7, 0]"] ;
105 -> 109 ;
110 [label="gini = 0.0\nsamples = 1\nvalue = [0, 1]"] ;
104 -> 110 ;
111 [label="gini = 0.0\nsamples = 64\nvalue = [64, 0]"] ;
101 -> 111 ;
112 [label="X[6] <= 163.116\ngini = 0.32\nsamples = 5\nvalue = [4, 1]"] ;
100 -> 112 ;
113 [label="gini = 0.0\nsamples = 4\nvalue = [4, 0]"] ;
112 -> 113 ;
114 [label="gini = 0.0\nsamples = 1\nvalue = [0, 1]"] ;
112 -> 114 ;
115 [label="X[2] <= 122372.0\ngini = 0.444\nsamples = 3\nvalue = [2, 1]"] ;
95 -> 115 ;
116 [label="gini = 0.0\nsamples = 1\nvalue = [0, 1]"] ;
115 -> 116 ;
117 [label="gini = 0.0\nsamples = 2\nvalue = [2, 0]"] ;
115 -> 117 ;
118 [label="X[8] <= 23.0\ngini = 0.337\nsamples = 14\nvalue = [11, 3]"] ;
90 -> 118 ;
119 [label="X[0] <= 21350.0\ngini = 0.48\nsamples = 5\nvalue = [2, 3]"] ;
118 -> 119 ;
120 [label="gini = 0.0\nsamples = 3\nvalue = [0, 3]"] ;
119 -> 120 ;
121 [label="gini = 0.0\nsamples = 2\nvalue = [2, 0]"] ;
119 -> 121 ;
122 [label="gini = 0.0\nsamples = 9\nvalue = [9, 0]"] ;
118 -> 122 ;
123 [label="X[2] <= 116081.5\ngini = 0.48\nsamples = 5\nvalue = [3, 2]"] ;
89 -> 123 ;
124 [label="gini = 0.0\nsamples = 2\nvalue = [0, 2]"] ;
123 -> 124 ;
125 [label="gini = 0.0\nsamples = 3\nvalue = [3, 0]"] ;
123 -> 125 ;
126 [label="X[2] <= 166063.0\ngini = 0.295\nsamples = 39\nvalue = [32, 7]"] ;
88 -> 126 ;
127 [label="X[9] <= 34.647\ngini = 0.5\nsamples = 12\nvalue = [6, 6]"] ;
126 -> 127 ;
128 [label="X[8] <= 17.0\ngini = 0.375\nsamples = 8\nvalue = [6, 2]"] ;
127 -> 128 ;
129 [label="gini = 0.0\nsamples = 2\nvalue = [0, 2]"] ;
128 -> 129 ;
130 [label="gini = 0.0\nsamples = 6\nvalue = [6, 0]"] ;
128 -> 130 ;
131 [label="gini = 0.0\nsamples = 4\nvalue = [0, 4]"] ;
127 -> 131 ;
132 [label="X[7] <= 4.0\ngini = 0.071\nsamples = 27\nvalue = [26, 1]"] ;
126 -> 132 ;
133 [label="gini = 0.0\nsamples = 26\nvalue = [26, 0]"] ;
132 -> 133 ;
134 [label="gini = 0.0\nsamples = 1\nvalue = [0, 1]"] ;
132 -> 134 ;
135 [label="gini = 0.0\nsamples = 2\nvalue = [0, 2]"] ;
79 -> 135 ;
136 [label="X[6] <= 135.13\ngini = 0.375\nsamples = 4\nvalue = [1, 3]"] ;
78 -> 136 ;
137 [label="gini = 0.0\nsamples = 1\nvalue = [1, 0]"] ;
136 -> 137 ;
138 [label="gini = 0.0\nsamples = 3\nvalue = [0, 3]"] ;
136 -> 138 ;
139 [label="X[9] <= 12.867\ngini = 0.087\nsamples = 662\nvalue = [632, 30]"] ;
3 -> 139 ;
140 [label="gini = 0.0\nsamples = 2\nvalue = [0, 2]"] ;
139 -> 140 ;
141 [label="X[8] <= 1.5\ngini = 0.081\nsamples = 660\nvalue = [632, 28]"] ;
139 -> 141 ;
142 [label="gini = 0.0\nsamples = 1\nvalue = [0, 1]"] ;
141 -> 142 ;
143 [label="X[1] <= 382608.0\ngini = 0.079\nsamples = 659\nvalue = [632, 27]"] ;
141 -> 143 ;
144 [label="X[5] <= 0.5\ngini = 0.076\nsamples = 658\nvalue = [632, 26]"] ;
143 -> 144 ;
145 [label="X[2] <= 47415.0\ngini = 0.059\nsamples = 587\nvalue = [569, 18]"] ;
144 -> 145 ;
146 [label="X[1] <= 30098.5\ngini = 0.278\nsamples = 18\nvalue = [15, 3]"] ;
145 -> 146 ;
147 [label="gini = 0.0\nsamples = 14\nvalue = [14, 0]"] ;
146 -> 147 ;
148 [label="X[0] <= 7000.0\ngini = 0.375\nsamples = 4\nvalue = [1, 3]"] ;
146 -> 148 ;
149 [label="gini = 0.0\nsamples = 1\nvalue = [1, 0]"] ;
148 -> 149 ;
150 [label="gini = 0.0\nsamples = 3\nvalue = [0, 3]"] ;
148 -> 150 ;
151 [label="X[1] <= 159932.5\ngini = 0.051\nsamples = 569\nvalue = [554, 15]"] ;
145 -> 151 ;
152 [label="X[8] <= 39.0\ngini = 0.04\nsamples = 533\nvalue = [522, 11]"] ;
151 -> 152 ;
153 [label="X[0] <= 18550.0\ngini = 0.027\nsamples = 503\nvalue = [496, 7]"] ;
152 -> 153 ;
154 [label="X[0] <= 6800.0\ngini = 0.007\nsamples = 273\nvalue = [272, 1]"] ;
153 -> 154 ;
155 [label="X[3] <= 5.5\ngini = 0.153\nsamples = 12\nvalue = [11, 1]"] ;
154 -> 155 ;
156 [label="X[9] <= 31.03\ngini = 0.5\nsamples = 2\nvalue = [1, 1]"] ;
155 -> 156 ;
157 [label="gini = 0.0\nsamples = 1\nvalue = [1, 0]"] ;
156 -> 157 ;
158 [label="gini = 0.0\nsamples = 1\nvalue = [0, 1]"] ;
156 -> 158 ;
159 [label="gini = 0.0\nsamples = 10\nvalue = [10, 0]"] ;
155 -> 159 ;
160 [label="gini = 0.0\nsamples = 261\nvalue = [261, 0]"] ;
154 -> 160 ;
161 [label="X[2] <= 63249.0\ngini = 0.051\nsamples = 230\nvalue = [224, 6]"] ;
153 -> 161 ;
162 [label="X[8] <= 22.5\ngini = 0.346\nsamples = 9\nvalue = [7, 2]"] ;
161 -> 162 ;
163 [label="X[0] <= 21400.0\ngini = 0.444\nsamples = 3\nvalue = [1, 2]"] ;
162 -> 163 ;
164 [label="gini = 0.0\nsamples = 1\nvalue = [1, 0]"] ;
163 -> 164 ;
165 [label="gini = 0.0\nsamples = 2\nvalue = [0, 2]"] ;
163 -> 165 ;
166 [label="gini = 0.0\nsamples = 6\nvalue = [6, 0]"] ;
162 -> 166 ;
167 [label="X[0] <= 18650.0\ngini = 0.036\nsamples = 221\nvalue = [217, 4]"] ;
161 -> 167 ;
168 [label="X[9] <= 32.035\ngini = 0.444\nsamples = 3\nvalue = [2, 1]"] ;
167 -> 168 ;
169 [label="gini = 0.0\nsamples = 2\nvalue = [2, 0]"] ;
168 -> 169 ;
170 [label="gini = 0.0\nsamples = 1\nvalue = [0, 1]"] ;
168 -> 170 ;
171 [label="X[8] <= 34.5\ngini = 0.027\nsamples = 218\nvalue = [215, 3]"] ;
167 -> 171 ;
172 [label="X[8] <= 14.5\ngini = 0.01\nsamples = 200\nvalue = [199, 1]"] ;
171 -> 172 ;
173 [label="X[8] <= 13.5\ngini = 0.105\nsamples = 18\nvalue = [17, 1]"] ;
172 -> 173 ;
174 [label="gini = 0.0\nsamples = 17\nvalue = [17, 0]"] ;
173 -> 174 ;
175 [label="gini = 0.0\nsamples = 1\nvalue = [0, 1]"] ;
173 -> 175 ;
176 [label="gini = 0.0\nsamples = 182\nvalue = [182, 0]"] ;
172 -> 176 ;
177 [label="X[6] <= 252.413\ngini = 0.198\nsamples = 18\nvalue = [16, 2]"] ;
171 -> 177 ;
178 [label="gini = 0.0\nsamples = 14\nvalue = [14, 0]"] ;
177 -> 178 ;
179 [label="X[9] <= 37.102\ngini = 0.5\nsamples = 4\nvalue = [2, 2]"] ;
177 -> 179 ;
180 [label="gini = 0.0\nsamples = 2\nvalue = [0, 2]"] ;
179 -> 180 ;
181 [label="gini = 0.0\nsamples = 2\nvalue = [2, 0]"] ;
179 -> 181 ;
182 [label="X[7] <= 1.5\ngini = 0.231\nsamples = 30\nvalue = [26, 4]"] ;
152 -> 182 ;
183 [label="X[3] <= 25.5\ngini = 0.08\nsamples = 24\nvalue = [23, 1]"] ;
182 -> 183 ;
184 [label="gini = 0.0\nsamples = 23\nvalue = [23, 0]"] ;
183 -> 184 ;
185 [label="gini = 0.0\nsamples = 1\nvalue = [0, 1]"] ;
183 -> 185 ;
186 [label="X[1] <= 78751.0\ngini = 0.5\nsamples = 6\nvalue = [3, 3]"] ;
182 -> 186 ;
187 [label="gini = 0.0\nsamples = 3\nvalue = [3, 0]"] ;
186 -> 187 ;
188 [label="gini = 0.0\nsamples = 3\nvalue = [0, 3]"] ;
186 -> 188 ;
189 [label="X[2] <= 227322.5\ngini = 0.198\nsamples = 36\nvalue = [32, 4]"] ;
151 -> 189 ;
190 [label="X[9] <= 28.323\ngini = 0.5\nsamples = 6\nvalue = [3, 3]"] ;
189 -> 190 ;
191 [label="gini = 0.0\nsamples = 3\nvalue = [3, 0]"] ;
190 -> 191 ;
192 [label="gini = 0.0\nsamples = 3\nvalue = [0, 3]"] ;
190 -> 192 ;
193 [label="X[3] <= 21.0\ngini = 0.064\nsamples = 30\nvalue = [29, 1]"] ;
189 -> 193 ;
194 [label="gini = 0.0\nsamples = 29\nvalue = [29, 0]"] ;
193 -> 194 ;
195 [label="gini = 0.0\nsamples = 1\nvalue = [0, 1]"] ;
193 -> 195 ;
196 [label="X[9] <= 43.153\ngini = 0.2\nsamples = 71\nvalue = [63, 8]"] ;
144 -> 196 ;
197 [label="X[4] <= 0.5\ngini = 0.18\nsamples = 70\nvalue = [63, 7]"] ;
196 -> 197 ;
198 [label="X[9] <= 35.745\ngini = 0.144\nsamples = 64\nvalue = [59, 5]"] ;
197 -> 198 ;
199 [label="X[9] <= 34.596\ngini = 0.251\nsamples = 34\nvalue = [29, 5]"] ;
198 -> 199 ;
200 [label="X[0] <= 7700.0\ngini = 0.17\nsamples = 32\nvalue = [29, 3]"] ;
199 -> 200 ;
201 [label="gini = 0.0\nsamples = 1\nvalue = [0, 1]"] ;
200 -> 201 ;
202 [label="X[8] <= 31.5\ngini = 0.121\nsamples = 31\nvalue = [29, 2]"] ;
200 -> 202 ;
203 [label="X[9] <= 22.709\ngini = 0.071\nsamples = 27\nvalue = [26, 1]"] ;
202 -> 203 ;
204 [label="X[9] <= 22.008\ngini = 0.375\nsamples = 4\nvalue = [3, 1]"] ;
203 -> 204 ;
205 [label="gini = 0.0\nsamples = 3\nvalue = [3, 0]"] ;
204 -> 205 ;
206 [label="gini = 0.0\nsamples = 1\nvalue = [0, 1]"] ;
204 -> 206 ;
207 [label="gini = 0.0\nsamples = 23\nvalue = [23, 0]"] ;
203 -> 207 ;
208 [label="X[6] <= 252.213\ngini = 0.375\nsamples = 4\nvalue = [3, 1]"] ;
202 -> 208 ;
209 [label="gini = 0.0\nsamples = 1\nvalue = [0, 1]"] ;
208 -> 209 ;
210 [label="gini = 0.0\nsamples = 3\nvalue = [3, 0]"] ;
208 -> 210 ;
211 [label="gini = 0.0\nsamples = 2\nvalue = [0, 2]"] ;
199 -> 211 ;
212 [label="gini = 0.0\nsamples = 30\nvalue = [30, 0]"] ;
198 -> 212 ;
213 [label="X[7] <= 1.0\ngini = 0.444\nsamples = 6\nvalue = [4, 2]"] ;
197 -> 213 ;
214 [label="gini = 0.0\nsamples = 4\nvalue = [4, 0]"] ;
213 -> 214 ;
215 [label="gini = 0.0\nsamples = 2\nvalue = [0, 2]"] ;
213 -> 215 ;
216 [label="gini = 0.0\nsamples = 1\nvalue = [0, 1]"] ;
196 -> 216 ;
217 [label="gini = 0.0\nsamples = 1\nvalue = [0, 1]"] ;
143 -> 217 ;
218 [label="X[6] <= 179.345\ngini = 0.5\nsamples = 39\nvalue = [19, 20]"] ;
2 -> 218 ;
219 [label="X[0] <= 16950.0\ngini = 0.426\nsamples = 26\nvalue = [8, 18]"] ;
218 -> 219 ;
220 [label="X[1] <= 61826.0\ngini = 0.486\nsamples = 12\nvalue = [7, 5]"] ;
219 -> 220 ;
221 [label="gini = 0.0\nsamples = 5\nvalue = [0, 5]"] ;
220 -> 221 ;
222 [label="gini = 0.0\nsamples = 7\nvalue = [7, 0]"] ;
220 -> 222 ;
223 [label="X[2] <= 133752.0\ngini = 0.133\nsamples = 14\nvalue = [1, 13]"] ;
219 -> 223 ;
224 [label="gini = 0.0\nsamples = 12\nvalue = [0, 12]"] ;
223 -> 224 ;
225 [label="X[7] <= 2.0\ngini = 0.5\nsamples = 2\nvalue = [1, 1]"] ;
223 -> 225 ;
226 [label="gini = 0.0\nsamples = 1\nvalue = [0, 1]"] ;
225 -> 226 ;
227 [label="gini = 0.0\nsamples = 1\nvalue = [1, 0]"] ;
225 -> 227 ;
228 [label="X[6] <= 349.751\ngini = 0.26\nsamples = 13\nvalue = [11, 2]"] ;
218 -> 228 ;
229 [label="X[3] <= 1.5\ngini = 0.153\nsamples = 12\nvalue = [11, 1]"] ;
228 -> 229 ;
230 [label="gini = 0.0\nsamples = 1\nvalue = [0, 1]"] ;
229 -> 230 ;
231 [label="gini = 0.0\nsamples = 11\nvalue = [11, 0]"] ;
229 -> 231 ;
232 [label="gini = 0.0\nsamples = 1\nvalue = [0, 1]"] ;
228 -> 232 ;
233 [label="X[5] <= 3.5\ngini = 0.498\nsamples = 96\nvalue = [51, 45]"] ;
1 -> 233 ;
234 [label="X[2] <= 152376.0\ngini = 0.463\nsamples = 77\nvalue = [49, 28]"] ;
233 -> 234 ;
235 [label="X[6] <= 153.816\ngini = 0.435\nsamples = 72\nvalue = [49, 23]"] ;
234 -> 235 ;
236 [label="X[3] <= 4.5\ngini = 0.499\nsamples = 25\nvalue = [12, 13]"] ;
235 -> 236 ;
237 [label="X[2] <= 126349.5\ngini = 0.32\nsamples = 15\nvalue = [12, 3]"] ;
236 -> 237 ;
238 [label="X[6] <= 29.293\ngini = 0.142\nsamples = 13\nvalue = [12, 1]"] ;
237 -> 238 ;
239 [label="gini = 0.0\nsamples = 1\nvalue = [0, 1]"] ;
238 -> 239 ;
240 [label="gini = 0.0\nsamples = 12\nvalue = [12, 0]"] ;
238 -> 240 ;
241 [label="gini = 0.0\nsamples = 2\nvalue = [0, 2]"] ;
237 -> 241 ;
242 [label="gini = 0.0\nsamples = 10\nvalue = [0, 10]"] ;
236 -> 242 ;
243 [label="X[3] <= 8.0\ngini = 0.335\nsamples = 47\nvalue = [37, 10]"] ;
235 -> 243 ;
244 [label="X[6] <= 206.87\ngini = 0.488\nsamples = 19\nvalue = [11, 8]"] ;
243 -> 244 ;
245 [label="X[1] <= 40302.0\ngini = 0.391\nsamples = 15\nvalue = [11, 4]"] ;
244 -> 245 ;
246 [label="gini = 0.0\nsamples = 2\nvalue = [0, 2]"] ;
245 -> 246 ;
247 [label="X[3] <= 6.5\ngini = 0.26\nsamples = 13\nvalue = [11, 2]"] ;
245 -> 247 ;
248 [label="gini = 0.0\nsamples = 10\nvalue = [10, 0]"] ;
247 -> 248 ;
249 [label="X[1] <= 64058.0\ngini = 0.444\nsamples = 3\nvalue = [1, 2]"] ;
247 -> 249 ;
250 [label="gini = 0.0\nsamples = 1\nvalue = [1, 0]"] ;
249 -> 250 ;
251 [label="gini = 0.0\nsamples = 2\nvalue = [0, 2]"] ;
249 -> 251 ;
252 [label="gini = 0.0\nsamples = 4\nvalue = [0, 4]"] ;
244 -> 252 ;
253 [label="X[9] <= 12.927\ngini = 0.133\nsamples = 28\nvalue = [26, 2]"] ;
243 -> 253 ;
254 [label="gini = 0.0\nsamples = 1\nvalue = [0, 1]"] ;
253 -> 254 ;
255 [label="X[6] <= 299.511\ngini = 0.071\nsamples = 27\nvalue = [26, 1]"] ;
253 -> 255 ;
256 [label="gini = 0.0\nsamples = 24\nvalue = [24, 0]"] ;
255 -> 256 ;
257 [label="X[2] <= 100444.5\ngini = 0.444\nsamples = 3\nvalue = [2, 1]"] ;
255 -> 257 ;
258 [label="gini = 0.0\nsamples = 2\nvalue = [2, 0]"] ;
257 -> 258 ;
259 [label="gini = 0.0\nsamples = 1\nvalue = [0, 1]"] ;
257 -> 259 ;
260 [label="gini = 0.0\nsamples = 5\nvalue = [0, 5]"] ;
234 -> 260 ;
261 [label="X[2] <= 66953.5\ngini = 0.188\nsamples = 19\nvalue = [2, 17]"] ;
233 -> 261 ;
262 [label="X[6] <= 231.232\ngini = 0.444\nsamples = 3\nvalue = [2, 1]"] ;
261 -> 262 ;
263 [label="gini = 0.0\nsamples = 2\nvalue = [2, 0]"] ;
262 -> 263 ;
264 [label="gini = 0.0\nsamples = 1\nvalue = [0, 1]"] ;
262 -> 264 ;
265 [label="gini = 0.0\nsamples = 16\nvalue = [0, 16]"] ;
261 -> 265 ;
266 [label="X[6] <= 299.897\ngini = 0.171\nsamples = 74\nvalue = [7, 67]"] ;
0 -> 266 [labeldistance=2.5, labelangle=-45, headlabel="False"] ;
267 [label="X[9] <= 44.155\ngini = 0.108\nsamples = 70\nvalue = [4, 66]"] ;
266 -> 267 ;
268 [label="X[8] <= 19.5\ngini = 0.48\nsamples = 10\nvalue = [4, 6]"] ;
267 -> 268 ;
269 [label="gini = 0.0\nsamples = 3\nvalue = [3, 0]"] ;
268 -> 269 ;
270 [label="X[3] <= 10.5\ngini = 0.245\nsamples = 7\nvalue = [1, 6]"] ;
268 -> 270 ;
271 [label="gini = 0.0\nsamples = 5\nvalue = [0, 5]"] ;
270 -> 271 ;
272 [label="X[9] <= 43.793\ngini = 0.5\nsamples = 2\nvalue = [1, 1]"] ;
270 -> 272 ;
273 [label="gini = 0.0\nsamples = 1\nvalue = [0, 1]"] ;
272 -> 273 ;
274 [label="gini = 0.0\nsamples = 1\nvalue = [1, 0]"] ;
272 -> 274 ;
275 [label="gini = 0.0\nsamples = 60\nvalue = [0, 60]"] ;
267 -> 275 ;
276 [label="X[9] <= 45.645\ngini = 0.375\nsamples = 4\nvalue = [3, 1]"] ;
266 -> 276 ;
277 [label="gini = 0.0\nsamples = 3\nvalue = [3, 0]"] ;
276 -> 277 ;
278 [label="gini = 0.0\nsamples = 1\nvalue = [0, 1]"] ;
276 -> 278 ;
}
